<?xml version="1.0"?>
<opencv_storage>
<cascade>
  <stageType>BOOST</stageType>
  <featureType>HAAR</featureType>
  <height>70</height>
  <width>40</width>
  <stageParams>
    <boostType>GAB</boostType>
    <minHitRate>9.9500000476837158e-01</minHitRate>
    <maxFalseAlarm>5.0000000000000000e-01</maxFalseAlarm>
    <weightTrimRate>9.4999998807907104e-01</weightTrimRate>
    <maxDepth>1</maxDepth>
    <maxWeakCount>100</maxWeakCount></stageParams>
  <featureParams>
    <maxCatCount>0</maxCatCount>
    <featSize>1</featSize>
    <mode>BASIC</mode></featureParams>
  <stageNum>17</stageNum>
  <stages>
    <!-- stage 0 -->
    <_>
      <maxWeakCount>2</maxWeakCount>
      <stageThreshold>-3.7900316715240479e-01</stageThreshold>
      <weakClassifiers>
        <_>
          <internalNodes>
            0 -1 26 -1.0956390202045441e-01</internalNodes>
          <leafValues>
            5.3086417913436890e-01 -9.8567336797714233e-01</leafValues></_>
        <_>
          <internalNodes>
            0 -1 8 -2.2956848144531250e-01</internalNodes>
          <leafValues>
            7.8779429197311401e-01 -9.0986734628677368e-01</leafValues></_></weakClassifiers></_>
    <!-- stage 1 -->
    <_>
      <maxWeakCount>5</maxWeakCount>
      <stageThreshold>-1.4228230714797974e+00</stageThreshold>
      <weakClassifiers>
        <_>
          <internalNodes>
            0 -1 12 -3.5626554489135742e-01</internalNodes>
          <leafValues>
            7.2413790225982666e-01 -8.8800001144409180e-01</leafValues></_>
        <_>
          <internalNodes>
            0 -1 39 8.6753733921796083e-04</internalNodes>
          <leafValues>
            -7.5364059209823608e-01 3.9464133977890015e-01</leafValues></_>
        <_>
          <internalNodes>
            0 -1 50 -3.9811069145798683e-03</internalNodes>
          <leafValues>
            3.4072157740592957e-01 -8.3321815729141235e-01</leafValues></_>
        <_>
          <internalNodes>
            0 -1 31 -1.2258732691407204e-02</internalNodes>
          <leafValues>
            7.3723816871643066e-01 -5.5504441261291504e-01</leafValues></_>
        <_>
          <internalNodes>
            0 -1 68 -3.7048645026516169e-05</internalNodes>
          <leafValues>
            5.1709139347076416e-01 -7.1514153480529785e-01</leafValues></_></weakClassifiers></_>
    <!-- stage 2 -->
    <_>
      <maxWeakCount>4</maxWeakCount>
      <stageThreshold>-1.4536973237991333e+00</stageThreshold>
      <weakClassifiers>
        <_>
          <internalNodes>
            0 -1 7 -5.5136787891387939e-01</internalNodes>
          <leafValues>
            2.3076923191547394e-01 -9.0371388196945190e-01</leafValues></_>
        <_>
          <internalNodes>
            0 -1 66 -1.5742112882435322e-03</internalNodes>
          <leafValues>
            1.6799142956733704e-01 -7.5548893213272095e-01</leafValues></_>
        <_>
          <internalNodes>
            0 -1 13 -3.3984324545599520e-04</internalNodes>
          <leafValues>
            2.3303304612636566e-01 -9.5796257257461548e-01</leafValues></_>
        <_>
          <internalNodes>
            0 -1 72 -1.4918853412382305e-04</internalNodes>
          <leafValues>
            2.3998773097991943e-01 -8.7593317031860352e-01</leafValues></_></weakClassifiers></_>
    <!-- stage 3 -->
    <_>
      <maxWeakCount>4</maxWeakCount>
      <stageThreshold>-1.5028867721557617e+00</stageThreshold>
      <weakClassifiers>
        <_>
          <internalNodes>
            0 -1 25 -2.9156005382537842e-01</internalNodes>
          <leafValues>
            7.1428573131561279e-01 -8.5620915889739990e-01</leafValues></_>
        <_>
          <internalNodes>
            0 -1 28 -1.4501289697363973e-03</internalNodes>
          <leafValues>
            7.1740187704563141e-02 -8.7984538078308105e-01</leafValues></_>
        <_>
          <internalNodes>
            0 -1 55 -1.6191095346584916e-04</internalNodes>
          <leafValues>
            -9.5639634132385254e-01 1.8298520147800446e-01</leafValues></_>
        <_>
          <internalNodes>
            0 -1 49 1.7829364514909685e-04</internalNodes>
          <leafValues>
            2.4631020426750183e-01 -9.0140295028686523e-01</leafValues></_></weakClassifiers></_>
    <!-- stage 4 -->
    <_>
      <maxWeakCount>5</maxWeakCount>
      <stageThreshold>-1.6361316442489624e+00</stageThreshold>
      <weakClassifiers>
        <_>
          <internalNodes>
            0 -1 36 -3.1343799084424973e-02</internalNodes>
          <leafValues>
            1.9607843831181526e-02 -8.8736265897750854e-01</leafValues></_>
        <_>
          <internalNodes>
            0 -1 15 -1.0873831808567047e-02</internalNodes>
          <leafValues>
            1.0961882770061493e-01 -7.7285754680633545e-01</leafValues></_>
        <_>
          <internalNodes>
            0 -1 43 -1.2163311475887895e-04</internalNodes>
          <leafValues>
            -9.2199951410293579e-01 2.0873852074146271e-01</leafValues></_>
        <_>
          <internalNodes>
            0 -1 24 1.7561633139848709e-03</internalNodes>
          <leafValues>
            -5.0097322463989258e-01 5.2736437320709229e-01</leafValues></_>
        <_>
          <internalNodes>
            0 -1 42 -3.4981581848114729e-04</internalNodes>
          <leafValues>
            -9.6028953790664673e-01 3.1632325053215027e-01</leafValues></_></weakClassifiers></_>
    <!-- stage 5 -->
    <_>
      <maxWeakCount>5</maxWeakCount>
      <stageThreshold>-1.6694378852844238e+00</stageThreshold>
      <weakClassifiers>
        <_>
          <internalNodes>
            0 -1 19 3.1408176291733980e-03</internalNodes>
          <leafValues>
            -8.6297762393951416e-01 5.0000000000000000e-01</leafValues></_>
        <_>
          <internalNodes>
            0 -1 4 -7.8901737928390503e-02</internalNodes>
          <leafValues>
            1.6858112812042236e-01 -7.1919327974319458e-01</leafValues></_>
        <_>
          <internalNodes>
            0 -1 56 -1.0297287371940911e-04</internalNodes>
          <leafValues>
            -9.3488538265228271e-01 2.2366890311241150e-01</leafValues></_>
        <_>
          <internalNodes>
            0 -1 75 2.9974560220580315e-06</internalNodes>
          <leafValues>
            -6.0925811529159546e-01 4.1165634989738464e-01</leafValues></_>
        <_>
          <internalNodes>
            0 -1 33 -9.8205376416444778e-03</internalNodes>
          <leafValues>
            -8.9513552188873291e-01 2.9832220077514648e-01</leafValues></_></weakClassifiers></_>
    <!-- stage 6 -->
    <_>
      <maxWeakCount>3</maxWeakCount>
      <stageThreshold>-1.4908206462860107e+00</stageThreshold>
      <weakClassifiers>
        <_>
          <internalNodes>
            0 -1 35 -1.0006992146372795e-02</internalNodes>
          <leafValues>
            6.5217393636703491e-01 -8.7301588058471680e-01</leafValues></_>
        <_>
          <internalNodes>
            0 -1 56 1.3657841191161424e-04</internalNodes>
          <leafValues>
            2.8552383184432983e-01 -8.5480868816375732e-01</leafValues></_>
        <_>
          <internalNodes>
            0 -1 59 1.3514078455045819e-04</internalNodes>
          <leafValues>
            2.3700392246246338e-01 -1.</leafValues></_></weakClassifiers></_>
    <!-- stage 7 -->
    <_>
      <maxWeakCount>4</maxWeakCount>
      <stageThreshold>-1.3246027231216431e+00</stageThreshold>
      <weakClassifiers>
        <_>
          <internalNodes>
            0 -1 47 -6.9535067304968834e-03</internalNodes>
          <leafValues>
            5.0000000000000000e-01 -8.6297762393951416e-01</leafValues></_>
        <_>
          <internalNodes>
            0 -1 60 4.1299767326563597e-04</internalNodes>
          <leafValues>
            -8.9231148362159729e-02 -9.6153694391250610e-01</leafValues></_>
        <_>
          <internalNodes>
            0 -1 76 2.5462456960667623e-06</internalNodes>
          <leafValues>
            -6.0615617036819458e-01 3.5860073566436768e-01</leafValues></_>
        <_>
          <internalNodes>
            0 -1 40 -1.7869196832180023e-02</internalNodes>
          <leafValues>
            3.4250974655151367e-01 -7.3099476099014282e-01</leafValues></_></weakClassifiers></_>
    <!-- stage 8 -->
    <_>
      <maxWeakCount>5</maxWeakCount>
      <stageThreshold>-1.7846218347549438e+00</stageThreshold>
      <weakClassifiers>
        <_>
          <internalNodes>
            0 -1 29 -2.1104955673217773e-01</internalNodes>
          <leafValues>
            1. -8.5175549983978271e-01</leafValues></_>
        <_>
          <internalNodes>
            0 -1 16 -1.4380298554897308e-01</internalNodes>
          <leafValues>
            4.1377320885658264e-01 -6.9046461582183838e-01</leafValues></_>
        <_>
          <internalNodes>
            0 -1 54 -3.2112994813360274e-04</internalNodes>
          <leafValues>
            -1. 1.7931728065013885e-01</leafValues></_>
        <_>
          <internalNodes>
            0 -1 3 -1.0676356032490730e-04</internalNodes>
          <leafValues>
            2.3884390294551849e-01 -7.7280002832412720e-01</leafValues></_>
        <_>
          <internalNodes>
            0 -1 20 2.2491265553981066e-04</internalNodes>
          <leafValues>
            -6.0864275693893433e-01 3.5108104348182678e-01</leafValues></_></weakClassifiers></_>
    <!-- stage 9 -->
    <_>
      <maxWeakCount>6</maxWeakCount>
      <stageThreshold>-1.6973030567169189e+00</stageThreshold>
      <weakClassifiers>
        <_>
          <internalNodes>
            0 -1 65 1.6091634752228856e-03</internalNodes>
          <leafValues>
            -8.6243385076522827e-01 3.0434781312942505e-01</leafValues></_>
        <_>
          <internalNodes>
            0 -1 17 -7.8066825866699219e-02</internalNodes>
          <leafValues>
            3.9395410567522049e-02 -7.6758861541748047e-01</leafValues></_>
        <_>
          <internalNodes>
            0 -1 5 9.6307368949055672e-04</internalNodes>
          <leafValues>
            -6.8046879768371582e-01 2.5751662254333496e-01</leafValues></_>
        <_>
          <internalNodes>
            0 -1 32 -2.8224817469890695e-06</internalNodes>
          <leafValues>
            2.1457156538963318e-01 -8.4213775396347046e-01</leafValues></_>
        <_>
          <internalNodes>
            0 -1 64 -2.2615390480495989e-04</internalNodes>
          <leafValues>
            -6.7194390296936035e-01 3.0800977349281311e-01</leafValues></_>
        <_>
          <internalNodes>
            0 -1 71 1.7861736705526710e-04</internalNodes>
          <leafValues>
            2.6357656717300415e-01 -7.2505718469619751e-01</leafValues></_></weakClassifiers></_>
    <!-- stage 10 -->
    <_>
      <maxWeakCount>6</maxWeakCount>
      <stageThreshold>-2.0562694072723389e+00</stageThreshold>
      <weakClassifiers>
        <_>
          <internalNodes>
            0 -1 27 -8.4485292434692383e-02</internalNodes>
          <leafValues>
            1. -8.4935063123703003e-01</leafValues></_>
        <_>
          <internalNodes>
            0 -1 58 -3.1185704283416271e-03</internalNodes>
          <leafValues>
            3.4617891907691956e-01 -6.0042655467987061e-01</leafValues></_>
        <_>
          <internalNodes>
            0 -1 23 -2.2536123287864029e-04</internalNodes>
          <leafValues>
            3.3583116531372070e-01 -6.3156741857528687e-01</leafValues></_>
        <_>
          <internalNodes>
            0 -1 38 -1.4149106573313475e-04</internalNodes>
          <leafValues>
            -1. 2.0159010589122772e-01</leafValues></_>
        <_>
          <internalNodes>
            0 -1 61 5.7623971952125430e-04</internalNodes>
          <leafValues>
            -4.6223190426826477e-01 5.2274960279464722e-01</leafValues></_>
        <_>
          <internalNodes>
            0 -1 22 -1.1395193636417389e-02</internalNodes>
          <leafValues>
            -8.7929773330688477e-01 2.8571712970733643e-01</leafValues></_></weakClassifiers></_>
    <!-- stage 11 -->
    <_>
      <maxWeakCount>3</maxWeakCount>
      <stageThreshold>-1.3285690546035767e+00</stageThreshold>
      <weakClassifiers>
        <_>
          <internalNodes>
            0 -1 0 1.0312963277101517e-03</internalNodes>
          <leafValues>
            -8.5397654771804810e-01 8.3333331346511841e-01</leafValues></_>
        <_>
          <internalNodes>
            0 -1 57 -2.6808397706190590e-06</internalNodes>
          <leafValues>
            1.0773026943206787e-01 -8.0048233270645142e-01</leafValues></_>
        <_>
          <internalNodes>
            0 -1 21 -9.1729103587567806e-05</internalNodes>
          <leafValues>
            3.3129543066024780e-01 -5.8232283592224121e-01</leafValues></_></weakClassifiers></_>
    <!-- stage 12 -->
    <_>
      <maxWeakCount>5</maxWeakCount>
      <stageThreshold>-1.8311972618103027e+00</stageThreshold>
      <weakClassifiers>
        <_>
          <internalNodes>
            0 -1 45 1.0488767176866531e-02</internalNodes>
          <leafValues>
            -8.5845345258712769e-01 6.2500000000000000e-01</leafValues></_>
        <_>
          <internalNodes>
            0 -1 46 4.4463321682997048e-04</internalNodes>
          <leafValues>
            -7.4297958612442017e-01 1.5078512020409107e-02</leafValues></_>
        <_>
          <internalNodes>
            0 -1 67 -1.7510530306026340e-03</internalNodes>
          <leafValues>
            3.4987875819206238e-01 -5.4242092370986938e-01</leafValues></_>
        <_>
          <internalNodes>
            0 -1 1 -6.6570448689162731e-04</internalNodes>
          <leafValues>
            2.6671451330184937e-01 -7.7339833974838257e-01</leafValues></_>
        <_>
          <internalNodes>
            0 -1 41 -1.9058268517255783e-03</internalNodes>
          <leafValues>
            2.4164476990699768e-01 -8.4635746479034424e-01</leafValues></_></weakClassifiers></_>
    <!-- stage 13 -->
    <_>
      <maxWeakCount>5</maxWeakCount>
      <stageThreshold>-1.4533243179321289e+00</stageThreshold>
      <weakClassifiers>
        <_>
          <internalNodes>
            0 -1 52 -8.1841815263032913e-03</internalNodes>
          <leafValues>
            5.7894736528396606e-01 -8.6315786838531494e-01</leafValues></_>
        <_>
          <internalNodes>
            0 -1 11 -1.1425917036831379e-03</internalNodes>
          <leafValues>
            4.3128415942192078e-01 -5.8388078212738037e-01</leafValues></_>
        <_>
          <internalNodes>
            0 -1 37 -1.0549409125815146e-05</internalNodes>
          <leafValues>
            2.8984200954437256e-01 -6.7844933271408081e-01</leafValues></_>
        <_>
          <internalNodes>
            0 -1 73 2.9974560220580315e-06</internalNodes>
          <leafValues>
            -6.5316271781921387e-01 3.1942304968833923e-01</leafValues></_>
        <_>
          <internalNodes>
            0 -1 69 -1.5064922627061605e-03</internalNodes>
          <leafValues>
            -6.1555063724517822e-01 3.7698104977607727e-01</leafValues></_></weakClassifiers></_>
    <!-- stage 14 -->
    <_>
      <maxWeakCount>5</maxWeakCount>
      <stageThreshold>-1.6517733335494995e+00</stageThreshold>
      <weakClassifiers>
        <_>
          <internalNodes>
            0 -1 51 -2.6980198454111814e-03</internalNodes>
          <leafValues>
            2.7272728085517883e-01 -8.7667560577392578e-01</leafValues></_>
        <_>
          <internalNodes>
            0 -1 48 1.8753150943666697e-03</internalNodes>
          <leafValues>
            -6.6815698146820068e-01 2.8943720459938049e-01</leafValues></_>
        <_>
          <internalNodes>
            0 -1 34 -5.3327930800151080e-06</internalNodes>
          <leafValues>
            3.1675943732261658e-01 -6.5418559312820435e-01</leafValues></_>
        <_>
          <internalNodes>
            0 -1 9 5.8424902817932889e-06</internalNodes>
          <leafValues>
            -4.5742872357368469e-01 4.8135352134704590e-01</leafValues></_>
        <_>
          <internalNodes>
            0 -1 6 -6.2264240114018321e-04</internalNodes>
          <leafValues>
            2.3281471431255341e-01 -9.2386561632156372e-01</leafValues></_></weakClassifiers></_>
    <!-- stage 15 -->
    <_>
      <maxWeakCount>5</maxWeakCount>
      <stageThreshold>-1.6453970670700073e+00</stageThreshold>
      <weakClassifiers>
        <_>
          <internalNodes>
            0 -1 53 -2.7708389097824693e-04</internalNodes>
          <leafValues>
            7.3333334922790527e-01 -8.5863876342773438e-01</leafValues></_>
        <_>
          <internalNodes>
            0 -1 18 -3.8612846401520073e-04</internalNodes>
          <leafValues>
            5.6640017032623291e-01 -5.7944291830062866e-01</leafValues></_>
        <_>
          <internalNodes>
            0 -1 2 -1.9403694896027446e-03</internalNodes>
          <leafValues>
            -9.0774452686309814e-01 2.0732723176479340e-01</leafValues></_>
        <_>
          <internalNodes>
            0 -1 10 -2.6041520868602674e-06</internalNodes>
          <leafValues>
            3.5465776920318604e-01 -6.2072592973709106e-01</leafValues></_>
        <_>
          <internalNodes>
            0 -1 30 1.9424635684117675e-04</internalNodes>
          <leafValues>
            2.9955369234085083e-01 -7.6930040121078491e-01</leafValues></_></weakClassifiers></_>
    <!-- stage 16 -->
    <_>
      <maxWeakCount>6</maxWeakCount>
      <stageThreshold>-1.8048171997070313e+00</stageThreshold>
      <weakClassifiers>
        <_>
          <internalNodes>
            0 -1 63 1.9109472632408142e-02</internalNodes>
          <leafValues>
            -8.8187921047210693e-01 3.5294118523597717e-01</leafValues></_>
        <_>
          <internalNodes>
            0 -1 70 1.4041484100744128e-03</internalNodes>
          <leafValues>
            -6.1444699764251709e-01 4.5557504892349243e-01</leafValues></_>
        <_>
          <internalNodes>
            0 -1 74 6.8652851041406393e-04</internalNodes>
          <leafValues>
            2.0387914776802063e-01 -9.1024869680404663e-01</leafValues></_>
        <_>
          <internalNodes>
            0 -1 14 -8.2689628470689058e-04</internalNodes>
          <leafValues>
            5.9284055233001709e-01 -4.3273741006851196e-01</leafValues></_>
        <_>
          <internalNodes>
            0 -1 62 2.4913812056183815e-02</internalNodes>
          <leafValues>
            -3.9225882291793823e-01 5.9056419134140015e-01</leafValues></_>
        <_>
          <internalNodes>
            0 -1 44 -3.0083133606240153e-04</internalNodes>
          <leafValues>
            -9.6528446674346924e-01 3.1262603402137756e-01</leafValues></_></weakClassifiers></_></stages>
  <features>
    <_>
      <rects>
        <_>
          0 4 4 4 -1.</_>
        <_>
          0 4 2 2 2.</_>
        <_>
          2 6 2 2 2.</_></rects>
      <tilted>0</tilted></_>
    <_>
      <rects>
        <_>
          0 4 10 66 -1.</_>
        <_>
          0 4 5 33 2.</_>
        <_>
          5 37 5 33 2.</_></rects>
      <tilted>0</tilted></_>
    <_>
      <rects>
        <_>
          0 8 1 60 -1.</_>
        <_>
          0 28 1 20 3.</_></rects>
      <tilted>0</tilted></_>
    <_>
      <rects>
        <_>
          0 16 4 54 -1.</_>
        <_>
          0 16 2 27 2.</_>
        <_>
          2 43 2 27 2.</_></rects>
      <tilted>0</tilted></_>
    <_>
      <rects>
        <_>
          0 27 18 29 -1.</_>
        <_>
          9 27 9 29 2.</_></rects>
      <tilted>0</tilted></_>
    <_>
      <rects>
        <_>
          0 48 40 8 -1.</_>
        <_>
          0 48 20 4 2.</_>
        <_>
          20 52 20 4 2.</_></rects>
      <tilted>0</tilted></_>
    <_>
      <rects>
        <_>
          0 69 26 1 -1.</_>
        <_>
          13 69 13 1 2.</_></rects>
      <tilted>0</tilted></_>
    <_>
      <rects>
        <_>
          1 8 39 62 -1.</_>
        <_>
          14 8 13 62 3.</_></rects>
      <tilted>0</tilted></_>
    <_>
      <rects>
        <_>
          1 20 36 40 -1.</_>
        <_>
          13 20 12 40 3.</_></rects>
      <tilted>0</tilted></_>
    <_>
      <rects>
        <_>
          2 23 2 2 -1.</_>
        <_>
          2 23 1 1 2.</_>
        <_>
          3 24 1 1 2.</_></rects>
      <tilted>0</tilted></_>
    <_>
      <rects>
        <_>
          2 27 1 8 -1.</_>
        <_>
          2 31 1 4 2.</_></rects>
      <tilted>0</tilted></_>
    <_>
      <rects>
        <_>
          2 55 8 6 -1.</_>
        <_>
          2 55 4 3 2.</_>
        <_>
          6 58 4 3 2.</_></rects>
      <tilted>0</tilted></_>
    <_>
      <rects>
        <_>
          3 9 36 32 -1.</_>
        <_>
          15 9 12 32 3.</_></rects>
      <tilted>0</tilted></_>
    <_>
      <rects>
        <_>
          3 67 14 3 -1.</_>
        <_>
          10 67 7 3 2.</_></rects>
      <tilted>0</tilted></_>
    <_>
      <rects>
        <_>
          4 1 9 37 -1.</_>
        <_>
          7 1 3 37 3.</_></rects>
      <tilted>0</tilted></_>
    <_>
      <rects>
        <_>
          4 11 2 58 -1.</_>
        <_>
          4 40 2 29 2.</_></rects>
      <tilted>0</tilted></_>
    <_>
      <rects>
        <_>
          4 21 33 16 -1.</_>
        <_>
          15 21 11 16 3.</_></rects>
      <tilted>0</tilted></_>
    <_>
      <rects>
        <_>
          4 22 30 36 -1.</_>
        <_>
          4 40 30 18 2.</_></rects>
      <tilted>0</tilted></_>
    <_>
      <rects>
        <_>
          5 39 3 7 -1.</_>
        <_>
          6 39 1 7 3.</_></rects>
      <tilted>0</tilted></_>
    <_>
      <rects>
        <_>
          5 63 8 6 -1.</_>
        <_>
          5 65 8 2 3.</_></rects>
      <tilted>0</tilted></_>
    <_>
      <rects>
        <_>
          6 62 14 4 -1.</_>
        <_>
          6 64 14 2 2.</_></rects>
      <tilted>0</tilted></_>
    <_>
      <rects>
        <_>
          7 49 9 1 -1.</_>
        <_>
          10 49 3 1 3.</_></rects>
      <tilted>0</tilted></_>
    <_>
      <rects>
        <_>
          7 60 21 10 -1.</_>
        <_>
          14 60 7 10 3.</_></rects>
      <tilted>0</tilted></_>
    <_>
      <rects>
        <_>
          8 25 30 2 -1.</_>
        <_>
          8 26 30 1 2.</_></rects>
      <tilted>0</tilted></_>
    <_>
      <rects>
        <_>
          8 61 11 9 -1.</_>
        <_>
          8 64 11 3 3.</_></rects>
      <tilted>0</tilted></_>
    <_>
      <rects>
        <_>
          10 14 22 40 -1.</_>
        <_>
          21 14 11 40 2.</_></rects>
      <tilted>0</tilted></_>
    <_>
      <rects>
        <_>
          10 18 30 47 -1.</_>
        <_>
          20 18 10 47 3.</_></rects>
      <tilted>0</tilted></_>
    <_>
      <rects>
        <_>
          10 41 28 8 -1.</_>
        <_>
          24 41 14 8 2.</_></rects>
      <tilted>0</tilted></_>
    <_>
      <rects>
        <_>
          11 19 22 6 -1.</_>
        <_>
          11 22 22 3 2.</_></rects>
      <tilted>0</tilted></_>
    <_>
      <rects>
        <_>
          11 26 26 22 -1.</_>
        <_>
          24 26 13 22 2.</_></rects>
      <tilted>0</tilted></_>
    <_>
      <rects>
        <_>
          11 44 11 12 -1.</_>
        <_>
          11 48 11 4 3.</_></rects>
      <tilted>0</tilted></_>
    <_>
      <rects>
        <_>
          12 16 16 4 -1.</_>
        <_>
          20 16 8 4 2.</_></rects>
      <tilted>0</tilted></_>
    <_>
      <rects>
        <_>
          12 52 2 11 -1.</_>
        <_>
          13 52 1 11 2.</_></rects>
      <tilted>0</tilted></_>
    <_>
      <rects>
        <_>
          13 18 16 21 -1.</_>
        <_>
          13 25 16 7 3.</_></rects>
      <tilted>0</tilted></_>
    <_>
      <rects>
        <_>
          13 33 3 2 -1.</_>
        <_>
          14 33 1 2 3.</_></rects>
      <tilted>0</tilted></_>
    <_>
      <rects>
        <_>
          14 0 17 6 -1.</_>
        <_>
          14 3 17 3 2.</_></rects>
      <tilted>0</tilted></_>
    <_>
      <rects>
        <_>
          14 11 21 5 -1.</_>
        <_>
          21 11 7 5 3.</_></rects>
      <tilted>0</tilted></_>
    <_>
      <rects>
        <_>
          15 34 9 4 -1.</_>
        <_>
          18 34 3 4 3.</_></rects>
      <tilted>0</tilted></_>
    <_>
      <rects>
        <_>
          16 31 7 6 -1.</_>
        <_>
          16 33 7 2 3.</_></rects>
      <tilted>0</tilted></_>
    <_>
      <rects>
        <_>
          16 61 5 9 -1.</_>
        <_>
          16 64 5 3 3.</_></rects>
      <tilted>0</tilted></_>
    <_>
      <rects>
        <_>
          17 5 15 22 -1.</_>
        <_>
          17 16 15 11 2.</_></rects>
      <tilted>0</tilted></_>
    <_>
      <rects>
        <_>
          17 33 15 9 -1.</_>
        <_>
          22 33 5 9 3.</_></rects>
      <tilted>0</tilted></_>
    <_>
      <rects>
        <_>
          17 34 9 9 -1.</_>
        <_>
          17 37 9 3 3.</_></rects>
      <tilted>0</tilted></_>
    <_>
      <rects>
        <_>
          17 40 11 6 -1.</_>
        <_>
          17 42 11 2 3.</_></rects>
      <tilted>0</tilted></_>
    <_>
      <rects>
        <_>
          17 42 7 9 -1.</_>
        <_>
          17 45 7 3 3.</_></rects>
      <tilted>0</tilted></_>
    <_>
      <rects>
        <_>
          18 0 18 6 -1.</_>
        <_>
          18 0 9 3 2.</_>
        <_>
          27 3 9 3 2.</_></rects>
      <tilted>0</tilted></_>
    <_>
      <rects>
        <_>
          19 58 8 12 -1.</_>
        <_>
          19 62 8 4 3.</_></rects>
      <tilted>0</tilted></_>
    <_>
      <rects>
        <_>
          20 0 3 8 -1.</_>
        <_>
          20 4 3 4 2.</_></rects>
      <tilted>0</tilted></_>
    <_>
      <rects>
        <_>
          20 57 7 12 -1.</_>
        <_>
          20 61 7 4 3.</_></rects>
      <tilted>0</tilted></_>
    <_>
      <rects>
        <_>
          21 39 6 9 -1.</_>
        <_>
          21 42 6 3 3.</_></rects>
      <tilted>0</tilted></_>
    <_>
      <rects>
        <_>
          21 50 15 9 -1.</_>
        <_>
          26 50 5 9 3.</_></rects>
      <tilted>0</tilted></_>
    <_>
      <rects>
        <_>
          22 2 3 6 -1.</_>
        <_>
          22 5 3 3 2.</_></rects>
      <tilted>0</tilted></_>
    <_>
      <rects>
        <_>
          22 4 6 12 -1.</_>
        <_>
          24 4 2 12 3.</_></rects>
      <tilted>0</tilted></_>
    <_>
      <rects>
        <_>
          22 9 3 1 -1.</_>
        <_>
          23 9 1 1 3.</_></rects>
      <tilted>0</tilted></_>
    <_>
      <rects>
        <_>
          22 32 3 12 -1.</_>
        <_>
          22 36 3 4 3.</_></rects>
      <tilted>0</tilted></_>
    <_>
      <rects>
        <_>
          22 38 5 12 -1.</_>
        <_>
          22 42 5 4 3.</_></rects>
      <tilted>0</tilted></_>
    <_>
      <rects>
        <_>
          22 45 4 9 -1.</_>
        <_>
          22 48 4 3 3.</_></rects>
      <tilted>0</tilted></_>
    <_>
      <rects>
        <_>
          22 55 4 2 -1.</_>
        <_>
          22 56 4 1 2.</_></rects>
      <tilted>0</tilted></_>
    <_>
      <rects>
        <_>
          23 0 2 10 -1.</_>
        <_>
          23 5 2 5 2.</_></rects>
      <tilted>0</tilted></_>
    <_>
      <rects>
        <_>
          23 34 2 9 -1.</_>
        <_>
          23 37 2 3 3.</_></rects>
      <tilted>0</tilted></_>
    <_>
      <rects>
        <_>
          23 44 4 12 -1.</_>
        <_>
          23 48 4 4 3.</_></rects>
      <tilted>0</tilted></_>
    <_>
      <rects>
        <_>
          23 56 5 12 -1.</_>
        <_>
          23 60 5 4 3.</_></rects>
      <tilted>0</tilted></_>
    <_>
      <rects>
        <_>
          24 7 15 24 -1.</_>
        <_>
          29 7 5 24 3.</_></rects>
      <tilted>0</tilted></_>
    <_>
      <rects>
        <_>
          25 4 9 21 -1.</_>
        <_>
          28 4 3 21 3.</_></rects>
      <tilted>0</tilted></_>
    <_>
      <rects>
        <_>
          25 42 4 15 -1.</_>
        <_>
          25 47 4 5 3.</_></rects>
      <tilted>0</tilted></_>
    <_>
      <rects>
        <_>
          27 11 3 9 -1.</_>
        <_>
          28 11 1 9 3.</_></rects>
      <tilted>0</tilted></_>
    <_>
      <rects>
        <_>
          29 42 6 8 -1.</_>
        <_>
          31 42 2 8 3.</_></rects>
      <tilted>0</tilted></_>
    <_>
      <rects>
        <_>
          29 42 6 26 -1.</_>
        <_>
          31 42 2 26 3.</_></rects>
      <tilted>0</tilted></_>
    <_>
      <rects>
        <_>
          30 38 6 2 -1.</_>
        <_>
          30 39 6 1 2.</_></rects>
      <tilted>0</tilted></_>
    <_>
      <rects>
        <_>
          30 46 3 24 -1.</_>
        <_>
          30 54 3 8 3.</_></rects>
      <tilted>0</tilted></_>
    <_>
      <rects>
        <_>
          31 46 6 4 -1.</_>
        <_>
          33 46 2 4 3.</_></rects>
      <tilted>0</tilted></_>
    <_>
      <rects>
        <_>
          34 21 3 19 -1.</_>
        <_>
          35 21 1 19 3.</_></rects>
      <tilted>0</tilted></_>
    <_>
      <rects>
        <_>
          35 33 3 18 -1.</_>
        <_>
          35 42 3 9 2.</_></rects>
      <tilted>0</tilted></_>
    <_>
      <rects>
        <_>
          35 68 2 2 -1.</_>
        <_>
          35 69 2 1 2.</_></rects>
      <tilted>0</tilted></_>
    <_>
      <rects>
        <_>
          36 1 4 14 -1.</_>
        <_>
          38 1 2 14 2.</_></rects>
      <tilted>0</tilted></_>
    <_>
      <rects>
        <_>
          36 68 1 2 -1.</_>
        <_>
          36 69 1 1 2.</_></rects>
      <tilted>0</tilted></_>
    <_>
      <rects>
        <_>
          38 64 1 2 -1.</_>
        <_>
          38 65 1 1 2.</_></rects>
      <tilted>0</tilted></_></features></cascade>
</opencv_storage>
